digraph Tree {
node [shape=box, style="filled, rounded", color="black", fontname=helvetica] ;
edge [fontname=helvetica] ;
0 [label="Day Charge <= 1.198\nentropy = 0.957\nsamples = 2666\nvalue = [2271.0, 1382.5]", fillcolor="#f5ceb2"] ;
1 [label="CustServ Calls <= 1.477\nentropy = 0.872\nsamples = 2355\nvalue = [2106.0, 871.5]", fillcolor="#f0b58b"] ;
0 -> 1 [labeldistance=2.5, labelangle=45, headlabel="True"] ;
2 [label="Int'l Plan_yes <= 1.397\nentropy = 0.73\nsamples = 2171\nvalue = [2023, 518]", fillcolor="#eca16c"] ;
1 -> 2 ;
3 [label="Day Charge <= 0.796\nentropy = 0.548\nsamples = 1984\nvalue = [1905.0, 276.5]", fillcolor="#e99356"] ;
2 -> 3 ;
4 [label="Eve Charge <= -0.643\nentropy = 0.424\nsamples = 1787\nvalue = [1740.0, 164.5]", fillcolor="#e78d4c"] ;
3 -> 4 ;
5 [label="Eve Charge <= -1.13\nentropy = 0.22\nsamples = 484\nvalue = [479.0, 17.5]", fillcolor="#e68640"] ;
4 -> 5 ;
6 [label="entropy = 0.371\nsamples = 233\nvalue = [228.0, 17.5]", fillcolor="#e78b48"] ;
5 -> 6 ;
7 [label="entropy = 0.0\nsamples = 251\nvalue = [251, 0]", fillcolor="#e58139"] ;
5 -> 7 ;
8 [label="Night Mins <= 0.845\nentropy = 0.483\nsamples = 1303\nvalue = [1261, 147]", fillcolor="#e89050"] ;
4 -> 8 ;
9 [label="entropy = 0.412\nsamples = 1034\nvalue = [1008, 91]", fillcolor="#e78c4b"] ;
8 -> 9 ;
10 [label="entropy = 0.683\nsamples = 269\nvalue = [253, 56]", fillcolor="#eb9d65"] ;
8 -> 10 ;
11 [label="Eve Charge <= 1.289\nentropy = 0.973\nsamples = 197\nvalue = [165, 112]", fillcolor="#f7d7bf"] ;
3 -> 11 ;
12 [label="Night Calls <= 0.931\nentropy = 0.765\nsamples = 172\nvalue = [159.0, 45.5]", fillcolor="#eca572"] ;
11 -> 12 ;
13 [label="entropy = 0.837\nsamples = 138\nvalue = [125.0, 45.5]", fillcolor="#eeaf81"] ;
12 -> 13 ;
14 [label="entropy = 0.0\nsamples = 34\nvalue = [34, 0]", fillcolor="#e58139"] ;
12 -> 14 ;
15 [label="VMail Plan_yes <= 0.504\nentropy = 0.412\nsamples = 25\nvalue = [6.0, 66.5]", fillcolor="#4ba6e7"] ;
11 -> 15 ;
16 [label="entropy = 0.111\nsamples = 20\nvalue = [1.0, 66.5]", fillcolor="#3c9ee5"] ;
15 -> 16 ;
17 [label="entropy = 0.0\nsamples = 5\nvalue = [5, 0]", fillcolor="#e58139"] ;
15 -> 17 ;
18 [label="Intl Calls <= -0.811\nentropy = 0.913\nsamples = 187\nvalue = [118.0, 241.5]", fillcolor="#9acdf2"] ;
2 -> 18 ;
19 [label="entropy = 0.0\nsamples = 37\nvalue = [0.0, 129.5]", fillcolor="#399de5"] ;
18 -> 19 ;
20 [label="Intl Mins <= 1.017\nentropy = 1.0\nsamples = 150\nvalue = [118, 112]", fillcolor="#fef9f5"] ;
18 -> 20 ;
21 [label="Eve Charge <= 2.125\nentropy = 0.408\nsamples = 121\nvalue = [118.0, 10.5]", fillcolor="#e78c4b"] ;
20 -> 21 ;
22 [label="entropy = 0.192\nsamples = 116\nvalue = [115.0, 3.5]", fillcolor="#e6853f"] ;
21 -> 22 ;
23 [label="entropy = 0.881\nsamples = 5\nvalue = [3, 7]", fillcolor="#8ec7f0"] ;
21 -> 23 ;
24 [label="entropy = 0.0\nsamples = 29\nvalue = [0.0, 101.5]", fillcolor="#399de5"] ;
20 -> 24 ;
25 [label="Day Charge <= -0.364\nentropy = 0.702\nsamples = 184\nvalue = [83.0, 353.5]", fillcolor="#67b4eb"] ;
1 -> 25 ;
26 [label="Eve Charge <= 1.264\nentropy = 0.181\nsamples = 78\nvalue = [7.0, 248.5]", fillcolor="#3fa0e6"] ;
25 -> 26 ;
27 [label="Night Charge <= 1.484\nentropy = 0.095\nsamples = 72\nvalue = [3.0, 241.5]", fillcolor="#3b9ee5"] ;
26 -> 27 ;
28 [label="Account Length <= 1.257\nentropy = 0.041\nsamples = 66\nvalue = [1.0, 227.5]", fillcolor="#3a9de5"] ;
27 -> 28 ;
29 [label="entropy = 0.0\nsamples = 61\nvalue = [0.0, 213.5]", fillcolor="#399de5"] ;
28 -> 29 ;
30 [label="entropy = 0.353\nsamples = 5\nvalue = [1, 14]", fillcolor="#47a4e7"] ;
28 -> 30 ;
31 [label="entropy = 0.544\nsamples = 6\nvalue = [2, 14]", fillcolor="#55abe9"] ;
27 -> 31 ;
32 [label="entropy = 0.946\nsamples = 6\nvalue = [4, 7]", fillcolor="#aad5f4"] ;
26 -> 32 ;
33 [label="Eve Mins <= -0.902\nentropy = 0.981\nsamples = 106\nvalue = [76, 105]", fillcolor="#c8e4f8"] ;
25 -> 33 ;
34 [label="entropy = 0.141\nsamples = 15\nvalue = [1, 49]", fillcolor="#3d9fe6"] ;
33 -> 34 ;
35 [label="Day Charge <= -0.118\nentropy = 0.985\nsamples = 91\nvalue = [75, 56]", fillcolor="#f8dfcd"] ;
33 -> 35 ;
36 [label="Eve Mins <= 0.203\nentropy = 0.871\nsamples = 22\nvalue = [13.0, 31.5]", fillcolor="#8bc5f0"] ;
35 -> 36 ;
37 [label="entropy = 0.198\nsamples = 10\nvalue = [1.0, 31.5]", fillcolor="#3fa0e6"] ;
36 -> 37 ;
38 [label="entropy = 0.0\nsamples = 12\nvalue = [12, 0]", fillcolor="#e58139"] ;
36 -> 38 ;
39 [label="Int'l Plan_yes <= 1.397\nentropy = 0.86\nsamples = 69\nvalue = [62.0, 24.5]", fillcolor="#efb387"] ;
35 -> 39 ;
40 [label="entropy = 0.493\nsamples = 60\nvalue = [58, 7]", fillcolor="#e89051"] ;
39 -> 40 ;
41 [label="entropy = 0.693\nsamples = 9\nvalue = [4.0, 17.5]", fillcolor="#66b3eb"] ;
39 -> 41 ;
42 [label="VMail Plan_yes <= 0.504\nentropy = 0.802\nsamples = 311\nvalue = [165, 511]", fillcolor="#79bded"] ;
0 -> 42 [labeldistance=2.5, labelangle=-45, headlabel="False"] ;
43 [label="Eve Mins <= -0.01\nentropy = 0.652\nsamples = 237\nvalue = [98.0, 486.5]", fillcolor="#61b1ea"] ;
42 -> 43 ;
44 [label="Day Mins <= 1.542\nentropy = 0.953\nsamples = 108\nvalue = [73.0, 122.5]", fillcolor="#afd7f4"] ;
43 -> 44 ;
45 [label="Intl Mins <= 0.146\nentropy = 0.7\nsamples = 48\nvalue = [45.0, 10.5]", fillcolor="#eb9e67"] ;
44 -> 45 ;
46 [label="entropy = 0.0\nsamples = 29\nvalue = [29, 0]", fillcolor="#e58139"] ;
45 -> 46 ;
47 [label="entropy = 0.969\nsamples = 19\nvalue = [16.0, 10.5]", fillcolor="#f6d4bb"] ;
45 -> 47 ;
48 [label="Eve Mins <= -1.124\nentropy = 0.722\nsamples = 60\nvalue = [28, 112]", fillcolor="#6ab6ec"] ;
44 -> 48 ;
49 [label="entropy = 0.722\nsamples = 15\nvalue = [14.0, 3.5]", fillcolor="#eca06a"] ;
48 -> 49 ;
50 [label="Night Charge <= -0.454\nentropy = 0.513\nsamples = 45\nvalue = [14.0, 108.5]", fillcolor="#53aae8"] ;
48 -> 50 ;
51 [label="entropy = 0.966\nsamples = 13\nvalue = [9, 14]", fillcolor="#b8dcf6"] ;
50 -> 51 ;
52 [label="entropy = 0.287\nsamples = 32\nvalue = [5.0, 94.5]", fillcolor="#43a2e6"] ;
50 -> 52 ;
53 [label="Night Charge <= -0.215\nentropy = 0.344\nsamples = 129\nvalue = [25, 364]", fillcolor="#47a4e7"] ;
43 -> 53 ;
54 [label="Day Mins <= 1.234\nentropy = 0.612\nsamples = 60\nvalue = [23.0, 129.5]", fillcolor="#5caeea"] ;
53 -> 54 ;
55 [label="entropy = 0.0\nsamples = 6\nvalue = [6, 0]", fillcolor="#e58139"] ;
54 -> 55 ;
56 [label="Eve Mins <= 0.855\nentropy = 0.518\nsamples = 54\nvalue = [17.0, 129.5]", fillcolor="#53aae8"] ;
54 -> 56 ;
57 [label="entropy = 0.745\nsamples = 33\nvalue = [16.0, 59.5]", fillcolor="#6eb7ec"] ;
56 -> 57 ;
58 [label="entropy = 0.107\nsamples = 21\nvalue = [1, 70]", fillcolor="#3c9ee5"] ;
56 -> 58 ;
59 [label="Account Length <= -0.686\nentropy = 0.07\nsamples = 69\nvalue = [2.0, 234.5]", fillcolor="#3b9ee5"] ;
53 -> 59 ;
60 [label="entropy = 0.227\nsamples = 17\nvalue = [2.0, 52.5]", fillcolor="#41a1e6"] ;
59 -> 60 ;
61 [label="entropy = 0.0\nsamples = 52\nvalue = [0, 182]", fillcolor="#399de5"] ;
59 -> 61 ;
62 [label="Int'l Plan_yes <= 1.397\nentropy = 0.838\nsamples = 74\nvalue = [67.0, 24.5]", fillcolor="#efaf81"] ;
42 -> 62 ;
63 [label="Intl Mins <= -1.152\nentropy = 0.469\nsamples = 65\nvalue = [63, 7]", fillcolor="#e88f4f"] ;
62 -> 63 ;
64 [label="entropy = 0.98\nsamples = 7\nvalue = [5, 7]", fillcolor="#c6e3f8"] ;
63 -> 64 ;
65 [label="entropy = 0.0\nsamples = 58\nvalue = [58, 0]", fillcolor="#e58139"] ;
63 -> 65 ;
66 [label="entropy = 0.693\nsamples = 9\nvalue = [4.0, 17.5]", fillcolor="#66b3eb"] ;
62 -> 66 ;
}